{"learner":{"attributes":{"scikit_learn":"{\"_estimator_type\": \"classifier\"}"},"feature_names":[],"feature_types":[],"gradient_booster":{"model":{"gbtree_model_param":{"num_parallel_tree":"1","num_trees":"10"},"iteration_indptr":[0,1,2,3,4,5,6,7,8,9,10],"tree_info":[0,0,0,0,0,0,0,0,0,0],"trees":[{"base_weights":[-8.1514E-6,-4.753035E-1,1.0043739E0,-1.0823632E0,3.4431335E-1,3.294952E-1,1.6366541E0,-4.258417E-1,-1.679292E-2,-7.345775E-2,4.2336717E-1,-1.0524145E-1,3.6322734E-1,2.7398518E-1,5.7335645E-1],"categories":[],"categories_nodes":[],"categories_segments":[],"categories_sizes":[],"default_left":[0,0,0,0,0,0,0,0,0,0,0,0,0,0,0],"id":0,"left_children":[1,3,5,7,9,11,13,-1,-1,-1,-1,-1,-1,-1,-1],"loss_changes":[2.3951762E2,1.6982564E2,6.8231964E1,6.770172E1,9.191506E1,4.7912125E1,1.4728867E1,0E0,0E0,0E0,0E0,0E0,0E0,0E0,0E0],"parents":[2147483647,0,0,1,1,2,2,3,3,4,4,5,5,6,6],"right_children":[2,4,6,8,10,12,14,-1,-1,-1,-1,-1,-1,-1,-1],"split_conditions":[4.2942205E-1,1.94774E-1,-4.489303E-2,7.438687E-1,3.936349E-1,3.0566558E-1,-5.20209E-1,-4.258417E-1,-1.679292E-2,-7.345775E-2,4.2336717E-1,-1.0524145E-1,3.6322734E-1,2.7398518E-1,5.7335645E-1],"split_indices":[0,3,2,4,1,4,3,0,0,0,0,0,0,0,0],"split_type":[0,0,0,0,0,0,0,0,0,0,0,0,0,0,0],"sum_hessian":[4.9973563E2,3.3957034E2,1.6016527E2,1.948969E2,1.4467346E2,7.8208626E1,8.195664E1,1.4642253E2,4.8474354E1,9.370043E1,5.0973034E1,4.447647E1,3.3732155E1,2.3737442E1,5.82192E1],"tree_param":{"num_deleted":"0","num_feature":"20","num_nodes":"15","size_leaf_vector":"1"}},{"base_weights":[1.5703045E-3,-5.483087E-1,6.506629E-1,-8.9764255E-1,5.146352E-1,-3.8187075E-1,1.0050129E0,-4.015559E-1,-5.4219417E-2,-2.6843762E-1,2.8825152E-1,-2.4434036E-1,3.2672137E-1,-2.0703168E-1,3.5106763E-1],"categories":[],"categories_nodes":[],"categories_segments":[],"categories_sizes":[],"default_left":[0,0,0,0,0,0,0,0,0,0,0,0,0,0,0],"id":1,"left_children":[1,3,5,7,9,11,13,-1,-1,-1,-1,-1,-1,-1,-1],"loss_changes":[1.7372131E2,9.830517E1,8.205555E1,6.255667E1,4.2249245E1,3.7639793E1,4.7426437E1,0E0,0E0,0E0,0E0,0E0,0E0,0E0,0E0],"parents":[2147483647,0,0,1,1,2,2,3,3,4,4,5,5,6,6],"right_children":[2,4,6,8,10,12,14,-1,-1,-1,-1,-1,-1,-1,-1],"split_conditions":[4.522271E-2,5.925265E-1,-6.7197615E-1,2.5846988E-1,-6.410813E-1,7.658138E-1,-1.4169902E0,-4.015559E-1,-5.4219417E-2,-2.6843762E-1,2.8825152E-1,-2.4434036E-1,3.2672137E-1,-2.0703168E-1,3.5106763E-1],"split_indices":[2,1,4,0,0,3,0,0,0,0,0,0,0,0,0],"split_type":[0,0,0,0,0,0,0,0,0,0,0,0,0,0,0],"sum_hessian":[4.8472058E2,2.624994E2,2.2222118E2,1.9768593E2,6.481348E1,5.675786E1,1.6546332E2,1.2187172E2,7.581421E1,1.5343243E1,4.9470234E1,4.420397E1,1.2553886E1,1.4412345E1,1.5105098E2],"tree_param":{"num_deleted":"0","num_feature":"20","num_nodes":"15","size_leaf_vector":"1"}},{"base_weights":[-1.2740146E-3,-7.060909E-1,4.1592473E-1,-9.980138E-1,2.127447E-1,-5.5499524E-1,7.3001266E-1,-3.4214973E-1,1.10610165E-1,-1.3717617E-1,3.4153134E-1,-3.4870404E-1,6.625536E-2,3.116765E-3,3.5447785E-1],"categories":[],"categories_nodes":[],"categories_segments":[],"categories_sizes":[],"default_left":[0,0,0,0,0,0,0,0,0,0,0,0,0,0,0],"id":2,"left_children":[1,3,5,7,9,11,13,-1,-1,-1,-1,-1,-1,-1,-1],"loss_changes":[1.3702464E2,4.6688217E1,8.967283E1,2.6061188E1,2.6942131E1,3.4239227E1,7.2003E1,0E0,0E0,0E0,0E0,0E0,0E0,0E0,0E0],"parents":[2147483647,0,0,1,1,2,2,3,3,4,4,5,5,6,6],"right_children":[2,4,6,8,10,12,14,-1,-1,-1,-1,-1,-1,-1,-1],"split_conditions":[-3.0356434E-1,7.9551584E-1,-7.7310234E-1,1.3295343E0,2.4176688E-1,2.0151967E-1,-2.3379137E-1,-3.4214973E-1,1.10610165E-1,-1.3717617E-1,3.4153134E-1,-3.4870404E-1,6.625536E-2,3.116765E-3,3.5447785E-1],"split_indices":[3,4,0,0,0,2,1,0,0,0,0,0,0,0,0],"split_type":[0,0,0,0,0,0,0,0,0,0,0,0,0,0,0],"sum_hessian":[4.6399417E2,1.7226933E2,2.9172482E2,1.3066852E2,4.160081E1,7.111734E1,2.2060748E2,1.1848185E2,1.2186676E1,2.4427038E1,1.7173773E1,3.9610844E1,3.15065E1,8.545391E1,1.3515358E2],"tree_param":{"num_deleted":"0","num_feature":"20","num_nodes":"15","size_leaf_vector":"1"}},{"base_weights":[-1.9828023E-3,-6.782598E-1,3.2680288E-1,-9.8145556E-1,8.204269E-2,-6.923269E-1,5.6379694E-1,-3.327931E-1,1.04212485E-1,-3.4368804E-1,1.7810439E-1,-3.1508535E-1,9.128438E-2,-3.0016846E-3,3.152246E-1],"categories":[],"categories_nodes":[],"categories_segments":[],"categories_sizes":[],"default_left":[0,0,0,0,0,0,0,0,0,0,0,0,0,0,0],"id":3,"left_children":[1,3,5,7,9,11,13,-1,-1,-1,-1,-1,-1,-1,-1],"loss_changes":[9.830888E1,3.3421745E1,7.2245766E1,1.7965874E1,2.7160007E1,2.0503832E1,6.760769E1,0E0,0E0,0E0,0E0,0E0,0E0,0E0,0E0],"parents":[2147483647,0,0,1,1,2,2,3,3,4,4,5,5,6,6],"right_children":[2,4,6,8,10,12,14,-1,-1,-1,-1,-1,-1,-1,-1],"split_conditions":[-5.167304E-1,5.9157103E-1,-8.26112E-1,1.3033609E0,-5.188359E-1,5.040938E-1,-9.5464244E-2,-3.327931E-1,1.04212485E-1,-3.4368804E-1,1.7810439E-1,-3.1508535E-1,9.128438E-2,-3.0016846E-3,3.152246E-1],"split_indices":[2,3,1,1,4,0,4,0,0,0,0,0,0,0,0],"split_type":[0,0,0,0,0,0,0,0,0,0,0,0,0,0,0],"sum_hessian":[4.4013843E2,1.4363457E2,2.9650388E2,1.02477425E2,4.115714E1,5.5579178E1,2.409247E2,9.363358E1,8.843846E0,1.1742366E1,2.9414772E1,4.0852196E1,1.472698E1,1.1104893E2,1.2987576E2],"tree_param":{"num_deleted":"0","num_feature":"20","num_nodes":"15","size_leaf_vector":"1"}},{"base_weights":[-3.6468299E-3,-3.727098E-1,4.6767455E-1,-6.0405135E-1,6.3710815E-1,-1.9978529E-1,7.638298E-1,-2.8248927E-1,2.1427238E-2,9.004865E-3,3.2776374E-1,-1.4948997E-1,2.611895E-1,-3.3452958E-2,2.975781E-1],"categories":[],"categories_nodes":[],"categories_segments":[],"categories_sizes":[],"default_left":[0,0,0,0,0,0,0,0,0,0,0,0,0,0,0],"id":4,"left_children":[1,3,5,7,9,11,13,-1,-1,-1,-1,-1,-1,-1,-1],"loss_changes":[7.3356186E1,5.5636444E1,3.6762146E1,4.406256E1,1.2290474E1,1.8875086E1,2.5765427E1,0E0,0E0,0E0,0E0,0E0,0E0,0E0,0E0],"parents":[2147483647,0,0,1,1,2,2,3,3,4,4,5,5,6,6],"right_children":[2,4,6,8,10,12,14,-1,-1,-1,-1,-1,-1,-1,-1],"split_conditions":[1.577713E-1,9.082225E-1,-4.928849E-1,5.4525846E-1,-1.2478458E-1,8.45158E-1,-8.857356E-1,-2.8248927E-1,2.1427238E-2,9.004865E-3,3.2776374E-1,-1.4948997E-1,2.611895E-1,-3.3452958E-2,2.975781E-1],"split_indices":[0,3,3,4,2,1,2,0,0,0,0,0,0,0,0],"split_type":[0,0,0,0,0,0,0,0,0,0,0,0,0,0,0],"sum_hessian":[4.1971298E2,2.3550928E2,1.842037E2,1.9193929E2,4.3569992E1,5.6712757E1,1.2749095E2,1.2771678E2,6.42225E1,1.913252E1,2.4437471E1,4.476368E1,1.1949079E1,2.6459972E1,1.01030975E2],"tree_param":{"num_deleted":"0","num_feature":"20","num_nodes":"15","size_leaf_vector":"1"}},{"base_weights":[-1.147217E-3,-7.132067E-1,2.1961048E-1,-9.262044E-1,3.1688827E-1,-3.5232583E-1,5.522685E-1,-3.0677664E-1,3.4793591E-1,-2.1137433E-1,2.0105577E-1,-2.1917579E-1,6.995633E-2,-1.533396E-1,2.3078392E-1],"categories":[],"categories_nodes":[],"categories_segments":[],"categories_sizes":[],"default_left":[0,0,0,0,0,0,0,0,0,0,0,0,0,0,0],"id":5,"left_children":[1,3,5,7,9,11,13,-1,-1,-1,-1,-1,-1,-1,-1],"loss_changes":[6.2627556E1,2.0980774E1,5.805804E1,1.694606E1,6.5713534E0,2.5075829E1,4.4857388E1,0E0,0E0,0E0,0E0,0E0,0E0,0E0,0E0],"parents":[2147483647,0,0,1,1,2,2,3,3,4,4,5,5,6,6],"right_children":[2,4,6,8,10,12,14,-1,-1,-1,-1,-1,-1,-1,-1],"split_conditions":[-6.992441E-1,1.0657549E0,-3.3654493E-1,1.8321196E0,-7.8795093E-1,2.5477335E-1,-1.039689E0,-3.0677664E-1,3.4793591E-1,-2.1137433E-1,2.0105577E-1,-2.1917579E-1,6.995633E-2,-1.533396E-1,2.3078392E-1],"split_indices":[4,2,1,1,0,2,3,0,0,0,0,0,0,0,0],"split_type":[0,0,0,0,0,0,0,0,0,0,0,0,0,0,0],"sum_hessian":[3.9641644E2,9.3286804E1,3.0312964E2,7.738615E1,1.5900653E1,1.11451996E2,1.9167764E2,7.4455666E1,2.9304821E0,3.8307433E0,1.2069909E1,6.7559E1,4.3892994E1,3.2256874E1,1.5942078E2],"tree_param":{"num_deleted":"0","num_feature":"20","num_nodes":"15","size_leaf_vector":"1"}},{"base_weights":[-2.4726274E-3,-6.8688375E-1,1.9607155E-1,-8.53825E-1,4.0325797E-1,-1.17060445E-1,6.892091E-1,-3.0885345E-1,5.9822645E-2,-8.3591476E-2,2.998287E-1,-1.1249282E-1,2.3580731E-1,-5.3173505E-2,2.615107E-1],"categories":[],"categories_nodes":[],"categories_segments":[],"categories_sizes":[],"default_left":[0,0,0,0,0,0,0,0,0,0,0,0,0,0,0],"id":6,"left_children":[1,3,5,7,9,11,13,-1,-1,-1,-1,-1,-1,-1,-1],"loss_changes":[5.1709618E1,1.591679E1,4.563034E1,1.3995377E1,5.1741533E0,4.251651E1,1.8292084E1,0E0,0E0,0E0,0E0,0E0,0E0,0E0,0E0],"parents":[2147483647,0,0,1,1,2,2,3,3,4,4,5,5,6,6],"right_children":[2,4,6,8,10,12,14,-1,-1,-1,-1,-1,-1,-1,-1],"split_conditions":[-7.7310234E-1,1.1126884E0,1.9022322E-1,1.162723E0,-5.101608E-1,8.3149886E-1,-9.358672E-1,-3.0885345E-1,5.9822645E-2,-8.3591476E-2,2.998287E-1,-1.1249282E-1,2.3580731E-1,-5.3173505E-2,2.615107E-1],"split_indices":[0,3,2,4,1,4,1,0,0,0,0,0,0,0,0],"split_type":[0,0,0,0,0,0,0,0,0,0,0,0,0,0,0],"sum_hessian":[3.7854602E2,8.4568E1,2.93978E2,7.352532E1,1.1042685E1,1.8027182E2,1.137062E2,6.3033443E1,1.0491876E1,5.3994513E0,5.6432333E0,1.406794E2,3.9592415E1,1.9787321E1,9.391888E1],"tree_param":{"num_deleted":"0","num_feature":"20","num_nodes":"15","size_leaf_vector":"1"}},{"base_weights":[-1.2499404E-3,-3.9880055E-1,3.3670235E-1,-5.258305E-1,1.131849E0,-6.560301E-1,4.9522594E-1,-2.3728916E-1,3.0650545E-2,-1.3629036E-1,4.2794955E-1,-2.9414675E-1,1.5636973E-1,-9.32077E-2,2.1061748E-1],"categories":[],"categories_nodes":[],"categories_segments":[],"categories_sizes":[],"default_left":[0,0,0,0,0,0,0,0,0,0,0,0,0,0,0],"id":7,"left_children":[1,3,5,7,9,11,13,-1,-1,-1,-1,-1,-1,-1,-1],"loss_changes":[4.885523E1,3.308236E1,3.1256445E1,2.588242E1,6.7802315E0,1.1013238E1,2.8564861E1,0E0,0E0,0E0,0E0,0E0,0E0,0E0,0E0],"parents":[2147483647,0,0,1,1,2,2,3,3,4,4,5,5,6,6],"right_children":[2,4,6,8,10,12,14,-1,-1,-1,-1,-1,-1,-1,-1],"split_conditions":[-6.208824E-2,1.510693E0,-1.0237345E0,4.860316E-1,-7.459421E-1,8.8339514E-1,-9.186944E-1,-2.3728916E-1,3.0650545E-2,-1.3629036E-1,4.2794955E-1,-2.9414675E-1,1.5636973E-1,-9.32077E-2,2.1061748E-1],"split_indices":[3,2,4,1,0,1,0,0,0,0,0,0,0,0,0],"split_type":[0,0,0,0,0,0,0,0,0,0,0,0,0,0,0],"sum_hessian":[3.616335E2,1.6608232E2,1.9555121E2,1.539614E2,1.2120922E1,2.6494516E1,1.6905669E2,1.0807428E2,4.588711E1,1.8139997E0,1.0306922E1,2.0901194E1,5.5933213E0,3.4423607E1,1.3463309E2],"tree_param":{"num_deleted":"0","num_feature":"20","num_nodes":"15","size_leaf_vector":"1"}},{"base_weights":[-1.1132439E-3,-1.9296351E-1,6.3969564E-1,-7.874071E-1,1.8604623E-2,1.8518095E-1,9.130523E-1,-2.7929297E-1,5.796293E-2,-2.1664867E-1,7.958105E-2,-7.8236215E-2,2.6637042E-1,2.4734939E-2,3.105579E-1],"categories":[],"categories_nodes":[],"categories_segments":[],"categories_sizes":[],"default_left":[0,0,0,0,0,0,0,0,0,0,0,0,0,0,0],"id":8,"left_children":[1,3,5,7,9,11,13,-1,-1,-1,-1,-1,-1,-1,-1],"loss_changes":[4.2668377E1,3.3606205E1,9.766426E0,1.0053631E1,3.6363934E1,1.0036508E1,4.954769E0,0E0,0E0,0E0,0E0,0E0,0E0,0E0,0E0],"parents":[2147483647,0,0,1,1,2,2,3,3,4,4,5,5,6,6],"right_children":[2,4,6,8,10,12,14,-1,-1,-1,-1,-1,-1,-1,-1],"split_conditions":[7.57056E-1,-6.9033706E-1,-3.6527538E-1,1.0796183E0,-6.8076646E-1,4.3437693E-1,-1.3034108E0,-2.7929297E-1,5.796293E-2,-2.1664867E-1,7.958105E-2,-7.8236215E-2,2.6637042E-1,2.4734939E-2,3.105579E-1],"split_indices":[0,2,1,1,3,4,2,0,0,0,0,0,0,0,0],"split_type":[0,0,0,0,0,0,0,0,0,0,0,0,0,0,0],"sum_hessian":[3.4506442E2,2.660971E2,7.8967316E1,6.9132774E1,1.9696432E2,3.0286644E1,4.868067E1,6.034801E1,8.784765E0,4.8721127E1,1.482432E2,1.8912848E1,1.13737955E1,6.4555483E0,4.2225124E1],"tree_param":{"num_deleted":"0","num_feature":"20","num_nodes":"15","size_leaf_vector":"1"}},{"base_weights":[-9.947934E-4,-3.273636E-1,3.5080826E-1,-5.18652E-1,4.8378786E-1,7.405176E-2,7.746625E-1,-2.4122147E-1,-5.5774706E-3,-6.696782E-2,2.681592E-1,-1.339254E-1,1.4088552E-1,-2.6616535E-1,2.6044512E-1],"categories":[],"categories_nodes":[],"categories_segments":[],"categories_sizes":[],"default_left":[0,0,0,0,0,0,0,0,0,0,0,0,0,0,0],"id":9,"left_children":[1,3,5,7,9,11,13,-1,-1,-1,-1,-1,-1,-1,-1],"loss_changes":[3.7992683E1,2.6885036E1,1.8622713E1,1.9878212E1,9.84619E0,2.0271692E1,1.05271E1,0E0,0E0,0E0,0E0,0E0,0E0,0E0,0E0],"parents":[2147483647,0,0,1,1,2,2,3,3,4,4,5,5,6,6],"right_children":[2,4,6,8,10,12,14,-1,-1,-1,-1,-1,-1,-1,-1],"split_conditions":[1.10107586E-1,9.219366E-1,1.22336864E-1,4.3850616E-1,-4.34327E-1,-1.4170872E-1,-2.0593543E0,-2.4122147E-1,-5.5774706E-3,-6.696782E-2,2.681592E-1,-1.339254E-1,1.4088552E-1,-2.6616535E-1,2.6044512E-1],"split_indices":[4,1,2,2,3,0,0,0,0,0,0,0,0,0,0],"split_type":[0,0,0,0,0,0,0,0,0,0,0,0,0,0,0],"sum_hessian":[3.28896E2,1.7065152E2,1.5824448E2,1.3837909E2,3.2272415E1,9.644513E1,6.1799343E1,8.77093E1,5.06698E1,1.2014249E1,2.0258167E1,4.1591824E1,5.4853306E1,2.8391528E0,5.896019E1],"tree_param":{"num_deleted":"0","num_feature":"20","num_nodes":"15","size_leaf_vector":"1"}}]},"name":"gbtree"},"learner_model_param":{"base_score":"4.8850206E-1","boost_from_average":"1","num_class":"0","num_feature":"20","num_target":"1"},"objective":{"name":"binary:logistic","reg_loss_param":{"scale_pos_weight":"1"}}},"version":[2,1,4]}